{
  "identity": {
    "filename": "/home/marco-gwt/GWT/squeezenet/model/squeezenet.tflite",
    "fusions": [
      "std_match_group"
    ],
    "is_adjusted": true,
    "quantization_type": "SQ8"
  },
  "info": {
    "quantization": {
      "__type": "JsonSerializable",
      "__module_name": "quantization.quantization_set",
      "__class_name": "QuantizationSet",
      "__contents": {
        "unwrap": false,
        "qset": {
          "NodeId_input_1###": {
            "__type": "JsonSerializable",
            "__module_name": "quantization.multiplicative.mult_quantization",
            "__class_name": "MultQuantizationRecord",
            "__contents": {
              "out_qs": [
                {
                  "__type": "JsonSerializable",
                  "__module_name": "quantization.multiplicative.symmetric.symmetric_mult_qtype",
                  "__class_name": "SymmetricMultQType",
                  "__contents": {
                    "min_val": {
                      "__type": "numpy.ndarray",
                      "__contents": [
                        -1.0
                      ],
                      "__dtype": "float64"
                    },
                    "max_val": {
                      "__type": "numpy.ndarray",
                      "__contents": [
                        0.9921875
                      ],
                      "__dtype": "float64"
                    },
                    "scale": {
                      "__type": "numpy.ndarray",
                      "__contents": [
                        0.0078125
                      ],
                      "__dtype": "float64"
                    },
                    "dim": null,
                    "narrow_range": false,
                    "dtype": "int8"
                  }
                }
              ],
              "in_qs": [],
              "quant_mode": "symmetric",
              "scale_mul_biases_q": null
            }
          },
          "NodeId_CONV_2D_0_0_fusion###CONV_2D_0_0": {
            "__type": "JsonSerializable",
            "__module_name": "quantization.multiplicative.mult_quantization",
            "__class_name": "MultScalableFilterQuantizationRecord",
            "__contents": {
              "out_qs": [
                {
                  "__type": "JsonSerializable",
                  "__module_name": "quantization.multiplicative.symmetric.symmetric_mult_qtype",
                  "__class_name": "SymmetricMultQType",
                  "__contents": {
                    "min_val": {
                      "__type": "numpy.ndarray",
                      "__contents": [
                        -17.131670613927167
                      ],
                      "__dtype": "float64"
                    },
                    "max_val": {
                      "__type": "numpy.ndarray",
                      "__contents": [
                        16.99782943725586
                      ],
                      "__dtype": "float64"
                    },
                    "scale": {
                      "__type": "numpy.ndarray",
                      "__contents": [
                        0.133841176671306
                      ],
                      "__dtype": "float64"
                    },
                    "dim": null,
                    "narrow_range": false,
                    "dtype": "int8"
                  }
                }
              ],
              "constants_are_quantized": false,
              "in_qs": [
                {
                  "__type": "JsonSerializable",
                  "__module_name": "quantization.multiplicative.symmetric.symmetric_mult_qtype",
                  "__class_name": "SymmetricMultQType",
                  "__contents": {
                    "min_val": {
                      "__type": "numpy.ndarray",
                      "__contents": [
                        -1.0
                      ],
                      "__dtype": "float64"
                    },
                    "max_val": {
                      "__type": "numpy.ndarray",
                      "__contents": [
                        0.9921875
                      ],
                      "__dtype": "float64"
                    },
                    "scale": {
                      "__type": "numpy.ndarray",
                      "__contents": [
                        0.0078125
                      ],
                      "__dtype": "float64"
                    },
                    "dim": null,
                    "narrow_range": false,
                    "dtype": "int8"
                  }
                }
              ],
              "quant_mode": "symmetric",
              "scale_mul_biases_q": null,
              "calc_q": null,
              "acc_q": null,
              "biases_q": {
                "__type": "JsonSerializable",
                "__module_name": "quantization.multiplicative.symmetric.symmetric_mult_biases_qtype",
                "__class_name": "SymmetricMultBiasesQType",
                "__contents": {
                  "min_val": null,
                  "max_val": null,
                  "scale": {
                    "__type": "numpy.ndarray",
                    "__contents": [
                      3.379831468919292e-05,
                      0.0001112843892769888,
                      5.988193879602477e-05,
                      5.5057469580788165e-05,
                      3.094722706009634e-05,
                      5.157880514161661e-05,
                      5.188595241634175e-05,
                      6.995940930210054e-05,
                      6.145766383269802e-05,
                      0.00012904182949569076,
                      4.71579514851328e-05,
                      2.5765541067812592e-05,
                      5.059372415416874e-05,
                      5.9745194448623806e-05,
                      6.70780282234773e-05,
                      6.105656939325854e-05,
                      0.00010437058517709374,
                      4.462069773580879e-05,
                      7.788313087075949e-05,
                      3.333823769935407e-05,
                      3.680388181237504e-05,
                      1.419540694769239e-05,
                      4.249037374393083e-05,
                      2.200793824158609e-05,
                      1.837786658143159e-05,
                      3.0301820515887812e-05,
                      1.5065753359522205e-05,
                      5.4168456699699163e-05,
                      3.397200634935871e-05,
                      0.000122178957099095,
                      6.251843296922743e-05,
                      4.3125528463860974e-05,
                      2.8495405786088668e-05,
                      4.512920349952765e-05,
                      7.544743857579306e-05,
                      1.6352290913346224e-05,
                      7.539588841609657e-05,
                      3.920349627151154e-05,
                      2.9682361855520867e-05,
                      2.0609053535736166e-05,
                      3.1906809454085305e-05,
                      8.580680878367275e-05,
                      5.3626088629243895e-05,
                      0.0001165948124253191,
                      5.305966624291614e-05,
                      3.4569813578855246e-05,
                      0.00013936334289610386,
                      3.2594882213743404e-05,
                      6.315849896054715e-05,
                      2.3731823603156954e-05,
                      5.936602610745467e-05,
                      2.2178681319928728e-05,
                      2.4026694518397562e-05,
                      3.098802699241787e-05,
                      4.537321729003452e-05,
                      4.300866567064077e-05,
                      8.324264490511268e-05,
                      5.2456332923611626e-05,
                      5.4720978369005024e-05,
                      9.424573363503441e-05,
                      6.605134694837034e-05,
                      0.00015852188516873866,
                      6.528349331347272e-05,
                      3.7302583223208785e-05,
                      8.169286593329161e-05,
                      2.4420251065748744e-05,
                      3.9860089600551873e-05,
                      9.673272143118083e-05,
                      7.710650243097916e-05,
                      5.6637607485754415e-05,
                      3.3089036151068285e-05,
                      2.3808563128113747e-05,
                      6.877929263282567e-05,
                      2.590212898212485e-05,
                      2.8028649467159994e-05,
                      3.956296859541908e-05,
                      2.15763138839975e-05,
                      3.407530675758608e-05,
                      3.9707065297989175e-05,
                      1.8148386516259052e-05,
                      0.0001247875188710168,
                      1.8961489331559278e-05,
                      5.63302164664492e-05,
                      0.0001155538993771188,
                      4.871528290095739e-05,
                      6.297431536950171e-05,
                      4.5624663471244276e-05,
                      3.85962994187139e-05,
                      3.985463990829885e-05,
                      3.81793943233788e-05,
                      9.512220276519656e-05,
                      2.5127317712758668e-05,
                      0.00014812996960245073,
                      2.749373197730165e-05,
                      2.2956186512601562e-05,
                      5.587901614489965e-05
                    ],
                    "__dtype": "float64"
                  },
                  "dim": 0,
                  "narrow_range": false,
                  "dtype": "int32"
                }
              },
              "weights_q": {
                "__type": "JsonSerializable",
                "__module_name": "quantization.multiplicative.symmetric.symmetric_mult_qtype",
                "__class_name": "SymmetricMultQType",
                "__contents": {
                  "min_val": {
                    "__type": "numpy.ndarray",
                    "__contents": [
                      -0.5494254231452942,
                      -1.8090389966964722,
                      -0.9734408259391785,
                      -0.895014226436615,
                      -0.5030781030654907,
                      -0.8384650349617004,
                      -0.8434580564498901,
                      -1.1372601985931396,
                      -0.9990557432174683,
                      -2.0977039337158203,
                      -0.7665996551513672,
                      -0.41884464025497437,
                      -0.8224515914916992,
                      -0.9712178707122803,
                      -1.0904204845428467,
                      -0.9925356507301331,
                      -1.6966482400894165,
                      -0.7253540754318237,
                      -1.2660682201385498,
                      -0.5419464111328125,
                      -0.5982838869094849,
                      -0.23076052963733673,
                      -0.6907235383987427,
                      -0.35776105523109436,
                      -0.2987506091594696,
                      -0.4925864040851593,
                      -0.2449088841676712,
                      -0.880562424659729,
                      -0.5522489547729492,
                      -1.9861410856246948,
                      -1.0162996053695679,
                      -0.7010486125946045,
                      -0.46322131156921387,
                      -0.7336203455924988,
                      -1.2264735698699951,
                      -0.2658228278160095,
                      -1.2256355285644531,
                      -0.6372920274734497,
                      -0.48251646757125854,
                      -0.3350207805633545,
                      -0.5186771154403687,
                      -1.3948755264282227,
                      -0.8717457056045532,
                      -1.8953652381896973,
                      -0.8625379204750061,
                      -0.5619668960571289,
                      -2.2654905319213867,
                      -0.5298624038696289,
                      -1.0267045497894287,
                      -0.3857845366001129,
                      -0.9650540947914124,
                      -0.3605366349220276,
                      -0.39057794213294983,
                      -0.5037413835525513,
                      -0.737587034702301,
                      -0.6991488933563232,
                      -1.3531924486160278,
                      -0.8527301549911499,
                      -0.8895442485809326,
                      -1.532058596611023,
                      -1.073730707168579,
                      -2.5769317150115967,
                      -1.0612484216690063,
                      -0.6063907742500305,
                      -1.327999234199524,
                      -0.3969756066799164,
                      -0.6479656100273132,
                      -1.5724871158599854,
                      -1.2534433603286743,
                      -0.9207009673118591,
                      -0.5378953814506531,
                      -0.38703200221061707,
                      -1.118076205253601,
                      -0.42106500267982483,
                      -0.4556337296962738,
                      -0.6431356072425842,
                      -0.3507445454597473,
                      -0.5539281964302063,
                      -0.6454780697822571,
                      -0.2950201630592346,
                      -2.02854585647583,
                      -0.3082379698753357,
                      -0.9157040119171143,
                      -1.8784441947937012,
                      -0.7919156551361084,
                      -1.0237104892730713,
                      -0.741674542427063,
                      -0.6274214386940002,
                      -0.647877037525177,
                      -0.620644211769104,
                      -1.5463064908981323,
                      -0.40846967697143555,
                      -2.4080007076263428,
                      -0.44693809747695923,
                      -0.3731757700443268,
                      -0.9083693027496338
                    ],
                    "__dtype": "float32"
                  },
                  "max_val": {
                    "__type": "numpy.ndarray",
                    "__contents": [
                      0.5494254231452942,
                      1.8090389966964722,
                      0.9734408259391785,
                      0.895014226436615,
                      0.5030781030654907,
                      0.8384650349617004,
                      0.8434580564498901,
                      1.1372601985931396,
                      0.9990557432174683,
                      2.0977039337158203,
                      0.7665996551513672,
                      0.41884464025497437,
                      0.8224515914916992,
                      0.9712178707122803,
                      1.0904204845428467,
                      0.9925356507301331,
                      1.6966482400894165,
                      0.7253540754318237,
                      1.2660682201385498,
                      0.5419464111328125,
                      0.5982838869094849,
                      0.23076052963733673,
                      0.6907235383987427,
                      0.35776105523109436,
                      0.2987506091594696,
                      0.4925864040851593,
                      0.2449088841676712,
                      0.880562424659729,
                      0.5522489547729492,
                      1.9861410856246948,
                      1.0162996053695679,
                      0.7010486125946045,
                      0.46322131156921387,
                      0.7336203455924988,
                      1.2264735698699951,
                      0.2658228278160095,
                      1.2256355285644531,
                      0.6372920274734497,
                      0.48251646757125854,
                      0.3350207805633545,
                      0.5186771154403687,
                      1.3948755264282227,
                      0.8717457056045532,
                      1.8953652381896973,
                      0.8625379204750061,
                      0.5619668960571289,
                      2.2654905319213867,
                      0.5298624038696289,
                      1.0267045497894287,
                      0.3857845366001129,
                      0.9650540947914124,
                      0.3605366349220276,
                      0.39057794213294983,
                      0.5037413835525513,
                      0.737587034702301,
                      0.6991488933563232,
                      1.3531924486160278,
                      0.8527301549911499,
                      0.8895442485809326,
                      1.532058596611023,
                      1.073730707168579,
                      2.5769317150115967,
                      1.0612484216690063,
                      0.6063907742500305,
                      1.327999234199524,
                      0.3969756066799164,
                      0.6479656100273132,
                      1.5724871158599854,
                      1.2534433603286743,
                      0.9207009673118591,
                      0.5378953814506531,
                      0.38703200221061707,
                      1.118076205253601,
                      0.42106500267982483,
                      0.4556337296962738,
                      0.6431356072425842,
                      0.3507445454597473,
                      0.5539281964302063,
                      0.6454780697822571,
                      0.2950201630592346,
                      2.02854585647583,
                      0.3082379698753357,
                      0.9157040119171143,
                      1.8784441947937012,
                      0.7919156551361084,
                      1.0237104892730713,
                      0.741674542427063,
                      0.6274214386940002,
                      0.647877037525177,
                      0.620644211769104,
                      1.5463064908981323,
                      0.40846967697143555,
                      2.4080007076263428,
                      0.44693809747695923,
                      0.3731757700443268,
                      0.9083693027496338
                    ],
                    "__dtype": "float32"
                  },
                  "scale": {
                    "__type": "numpy.ndarray",
                    "__contents": [
                      0.004326184280216694,
                      0.014244401827454567,
                      0.0076648881658911705,
                      0.007047356106340885,
                      0.003961245063692331,
                      0.006602087058126926,
                      0.006641401909291744,
                      0.008954804390668869,
                      0.007866580970585346,
                      0.016517354175448418,
                      0.006036217790096998,
                      0.0032979892566800117,
                      0.006475996691733599,
                      0.007647384889423847,
                      0.008585987612605095,
                      0.007815240882337093,
                      0.013359434902668,
                      0.005711449310183525,
                      0.009969040751457214,
                      0.004267294425517321,
                      0.004710896871984005,
                      0.001817012089304626,
                      0.0054387678392231464,
                      0.0028170160949230194,
                      0.0023523669224232435,
                      0.00387863302603364,
                      0.0019284164300188422,
                      0.006933562457561493,
                      0.004348416812717915,
                      0.01563890650868416,
                      0.008002359420061111,
                      0.005520067643374205,
                      0.0036474119406193495,
                      0.005776538047939539,
                      0.009657272137701511,
                      0.0020930932369083166,
                      0.00965067371726036,
                      0.005018047522753477,
                      0.003799342317506671,
                      0.0026379588525742292,
                      0.004084071610122919,
                      0.010983271524310112,
                      0.006864139344543219,
                      0.014924135990440845,
                      0.0067916372790932655,
                      0.0044249361380934715,
                      0.017838507890701294,
                      0.004172144923359156,
                      0.008084287866950035,
                      0.00303767342120409,
                      0.007598851341754198,
                      0.002838871208950877,
                      0.003075416898354888,
                      0.003966467455029488,
                      0.005807771813124418,
                      0.005505109205842018,
                      0.010655058547854424,
                      0.006714410614222288,
                      0.007004285231232643,
                      0.012063453905284405,
                      0.008454572409391403,
                      0.02029080130159855,
                      0.008356287144124508,
                      0.0047747306525707245,
                      0.010456686839461327,
                      0.003125792136415839,
                      0.00510209146887064,
                      0.012381788343191147,
                      0.009869632311165333,
                      0.007249613758176565,
                      0.0042353966273367405,
                      0.0030474960803985596,
                      0.008803749457001686,
                      0.003315472509711981,
                      0.0035876671317964792,
                      0.005064059980213642,
                      0.00276176817715168,
                      0.004361639264971018,
                      0.005082504358142614,
                      0.0023229934740811586,
                      0.01597280241549015,
                      0.0024270706344395876,
                      0.007210267707705498,
                      0.014790899120271206,
                      0.006235556211322546,
                      0.008060712367296219,
                      0.005839956924319267,
                      0.004940326325595379,
                      0.005101393908262253,
                      0.004886962473392487,
                      0.01217564195394516,
                      0.0032162966672331095,
                      0.018960636109113693,
                      0.003519197693094611,
                      0.002938391873613,
                      0.007152514066547155
                    ],
                    "__dtype": "float32"
                  },
                  "dim": 0,
                  "narrow_range": true,
                  "dtype": "int8"
                }
              },
              "mul_biases_q": {
                "__type": "JsonSerializable",
                "__module_name": "quantization.multiplicative.symmetric.mult_mulbias_qtype_new",
                "__class_name": "MultMulBiasScaleQType",
                "__contents": {
                  "qnorms": {
                    "__type": "numpy.ndarray",
                    "__contents": [
                      19,
                      18,
                      19,
                      19,
                      20,
                      19,
                      19,
                      18,
                      19,
                      18,
                      19,
                      20,
                      19,
                      19,
                      18,
                      19,
                      18,
                      19,
                      18,
                      19,
                      19,
                      21,
                      19,
                      20,
                      20,
                      20,
                      21,
                      19,
                      19,
                      18,
                      19,
                      19,
                      20,
                      19,
                      18,
                      20,
                      18,
                      19,
                      20,
                      20,
                      20,
                      18,
                      19,
                      18,
                      19,
                      19,
                      17,
                      20,
                      19,
                      20,
                      19,
                      20,
                      20,
                      20,
                      19,
                      19,
                      18,
                      19,
                      19,
                      18,
                      18,
                      17,
                      18,
                      19,
                      18,
                      20,
                      19,
                      18,
                      18,
                      19,
                      19,
                      20,
                      18,
                      20,
                      20,
                      19,
                      20,
                      19,
                      19,
                      20,
                      18,
                      20,
                      19,
                      18,
                      19,
                      19,
                      19,
                      19,
                      19,
                      19,
                      18,
                      20,
                      17,
                      20,
                      20,
                      19
                    ],
                    "__dtype": "int8"
                  },
                  "qbiases": {
                    "__type": "numpy.ndarray",
                    "__contents": [
                      132,
                      218,
                      235,
                      216,
                      242,
                      202,
                      203,
                      137,
                      241,
                      253,
                      185,
                      202,
                      198,
                      234,
                      131,
                      239,
                      204,
                      175,
                      153,
                      131,
                      144,
                      222,
                      166,
                      172,
                      144,
                      237,
                      236,
                      212,
                      133,
                      239,
                      245,
                      169,
                      223,
                      177,
                      148,
                      128,
                      148,
                      154,
                      233,
                      161,
                      250,
                      168,
                      210,
                      228,
                      208,
                      135,
                      136,
                      255,
                      247,
                      186,
                      233,
                      174,
                      188,
                      243,
                      178,
                      168,
                      163,
                      205,
                      214,
                      185,
                      129,
                      155,
                      128,
                      146,
                      160,
                      191,
                      156,
                      189,
                      151,
                      222,
                      130,
                      187,
                      135,
                      203,
                      220,
                      155,
                      169,
                      133,
                      156,
                      142,
                      244,
                      149,
                      221,
                      226,
                      191,
                      247,
                      179,
                      151,
                      156,
                      150,
                      186,
                      197,
                      145,
                      215,
                      180,
                      219
                    ],
                    "__dtype": "uint8"
                  },
                  "scale": {
                    "__type": "numpy.ndarray",
                    "__contents": [
                      0.00025252553459087225,
                      0.0008314660110190655,
                      0.0004474104329124803,
                      0.00041136420756372397,
                      0.00023122351304560122,
                      0.00038537321939634825,
                      0.0003876680832219962,
                      0.0005227046790982003,
                      0.0004591835290243218,
                      0.0009641414750305005,
                      0.0003523426247286043,
                      0.00019250832747151443,
                      0.00037801314522525,
                      0.0004463887417498511,
                      0.0005011763187663163,
                      0.0004561867349926577,
                      0.0007798092319033653,
                      0.00033338542626078807,
                      0.0005819070992033257,
                      0.00024908804994465807,
                      0.0002749817561957027,
                      0.00010606158209856595,
                      0.00031746862064939,
                      0.00016443323937321853,
                      0.0001373110057644285,
                      0.00022640133081244926,
                      0.00011256441204578957,
                      0.00040472191030364917,
                      0.00025382327916011156,
                      0.000912865234285472,
                      0.0004671091103955504,
                      0.0003222142059447882,
                      0.00021290462692261848,
                      0.00033718474853488666,
                      0.0005637087214279409,
                      0.00012217683167494123,
                      0.0005633235622341968,
                      0.0002929105768980909,
                      0.0002217730192884984,
                      0.0001539814132563175,
                      0.00023839307339955387,
                      0.0006411091931327047,
                      0.00040066958437567825,
                      0.0008711430616876495,
                      0.0003964375356115015,
                      0.0002582898211045586,
                      0.0010412590980006062,
                      0.00024353403806207997,
                      0.0004718913904624062,
                      0.00017731332160534407,
                      0.00044355576948676114,
                      0.00016570895348892717,
                      0.00017951646209300406,
                      0.00023152835146182145,
                      0.00033900790786877484,
                      0.000321341060653282,
                      0.0006219509344986127,
                      0.00039192970525383657,
                      0.0004088500992739447,
                      0.0007041609763076718,
                      0.0004935054262903159,
                      0.0011844029551387224,
                      0.0004877683754514447,
                      0.00027870782483344704,
                      0.0006103716955053163,
                      0.00018245693644580878,
                      0.00029781634166622966,
                      0.0007227426105849473,
                      0.0005761044870394501,
                      0.00042317027460725295,
                      0.00024722613005958574,
                      0.0001778866842046976,
                      0.0005138873875992393,
                      0.0001935288498377194,
                      0.0002094172373872219,
                      0.0002955963895369797,
                      0.0001612083397696489,
                      0.00025459509251977037,
                      0.00029667301413154653,
                      0.00013559643577274271,
                      0.0009323552136535409,
                      0.0001416715677726435,
                      0.0004208735896336882,
                      0.0008633658359183585,
                      0.000363978292126009,
                      0.0004705152549888085,
                      0.0003408865986234689,
                      0.00028837387998687924,
                      0.00029777562406056783,
                      0.00028525895597243374,
                      0.0007107095524033126,
                      0.00018773981473928325,
                      0.0011067593194150997,
                      0.00020542057878661783,
                      0.00017151811634904062,
                      0.00041750242738921965
                    ],
                    "__dtype": "float64"
                  },
                  "pre_normalization": 0,
                  "dtype": "uint8"
                }
              },
              "enable_prenorm": false
            }
          },
          "NodeId_CONV_2D_0_0_fusion###CONV_2D_0_0_activation": {
            "__type": "JsonSerializable",
            "__module_name": "quantization.multiplicative.mult_quantization",
            "__class_name": "MultQuantizationRecord",
            "__contents": {
              "out_qs": [
                {
                  "__type": "JsonSerializable",
                  "__module_name": "quantization.multiplicative.symmetric.symmetric_mult_qtype",
                  "__class_name": "SymmetricMultQType",
                  "__contents": {
                    "min_val": {
                      "__type": "numpy.ndarray",
                      "__contents": [
                        -17.131670613927167
                      ],
                      "__dtype": "float64"
                    },
                    "max_val": {
                      "__type": "numpy.ndarray",
                      "__contents": [
                        16.99782943725586
                      ],
                      "__dtype": "float64"
                    },
                    "scale": {
                      "__type": "numpy.ndarray",
                      "__contents": [
                        0.133841176671306
                      ],
                      "__dtype": "float64"
                    },
                    "dim": null,
                    "narrow_range": false,
                    "dtype": "int8"
                  }
                }
              ],
              "in_qs": [
                {
                  "__type": "JsonSerializable",
                  "__module_name": "quantization.multiplicative.symmetric.symmetric_mult_qtype",
                  "__class_name": "SymmetricMultQType",
                  "__contents": {
                    "min_val": {
                      "__type": "numpy.ndarray",
                      "__contents": [
                        -17.131670613927167
                      ],
                      "__dtype": "float64"
                    },
                    "max_val": {
                      "__type": "numpy.ndarray",
                      "__contents": [
                        16.99782943725586
                      ],
                      "__dtype": "float64"
                    },
                    "scale": {
                      "__type": "numpy.ndarray",
                      "__contents": [
                        0.133841176671306
                      ],
                      "__dtype": "float64"
                    },
                    "dim": null,
                    "narrow_range": false,
                    "dtype": "int8"
                  }
                }
              ],
              "quant_mode": "symmetric",
              "scale_mul_biases_q": null
            }
          },
          "NodeId_CONV_2D_0_0_fusion###MAX_POOL_2D_0_1": {
            "__type": "JsonSerializable",
            "__module_name": "quantization.multiplicative.mult_quantization",
            "__class_name": "MultQuantizationRecord",
            "__contents": {
              "out_qs": [
                {
                  "__type": "JsonSerializable",
                  "__module_name": "quantization.multiplicative.symmetric.symmetric_mult_qtype",
                  "__class_name": "SymmetricMultQType",
                  "__contents": {
                    "min_val": {
                      "__type": "numpy.ndarray",
                      "__contents": [
                        -17.131670613927167
                      ],
                      "__dtype": "float64"
                    },
                    "max_val": {
                      "__type": "numpy.ndarray",
                      "__contents": [
                        16.99782943725586
                      ],
                      "__dtype": "float64"
                    },
                    "scale": {
                      "__type": "numpy.ndarray",
                      "__contents": [
                        0.133841176671306
                      ],
                      "__dtype": "float64"
                    },
                    "dim": null,
                    "narrow_range": false,
                    "dtype": "int8"
                  }
                }
              ],
              "in_qs": [
                {
                  "__type": "JsonSerializable",
                  "__module_name": "quantization.multiplicative.symmetric.symmetric_mult_qtype",
                  "__class_name": "SymmetricMultQType",
                  "__contents": {
                    "min_val": {
                      "__type": "numpy.ndarray",
                      "__contents": [
                        -17.131670613927167
                      ],
                      "__dtype": "float64"
                    },
                    "max_val": {
                      "__type": "numpy.ndarray",
                      "__contents": [
                        16.99782943725586
                      ],
                      "__dtype": "float64"
                    },
                    "scale": {
                      "__type": "numpy.ndarray",
                      "__contents": [
                        0.133841176671306
                      ],
                      "__dtype": "float64"
                    },
                    "dim": null,
                    "narrow_range": false,
                    "dtype": "int8"
                  }
                }
              ],
              "quant_mode": "symmetric",
              "scale_mul_biases_q": null
            }
          },
          "NodeId_CONV_2D_0_0_fusion###": {
            "__type": "JsonSerializable",
            "__module_name": "quantization.multiplicative.mult_quantization",
            "__class_name": "MultQuantizationRecord",
            "__contents": {
              "out_qs": [
                {
                  "__type": "JsonSerializable",
                  "__module_name": "quantization.multiplicative.symmetric.symmetric_mult_qtype",
                  "__class_name": "SymmetricMultQType",
                  "__contents": {
                    "min_val": {
                      "__type": "numpy.ndarray",
                      "__contents": [
                        -17.131670613927167
                      ],
                      "__dtype": "float64"
                    },
                    "max_val": {
                      "__type": "numpy.ndarray",
                      "__contents": [
                        16.99782943725586
                      ],
                      "__dtype": "float64"
                    },
                    "scale": {
                      "__type": "numpy.ndarray",
                      "__contents": [
                        0.133841176671306
                      ],
                      "__dtype": "float64"
                    },
                    "dim": null,
                    "narrow_range": false,
                    "dtype": "int8"
                  }
                }
              ],
              "in_qs": [
                {
                  "__type": "JsonSerializable",
                  "__module_name": "quantization.multiplicative.symmetric.symmetric_mult_qtype",
                  "__class_name": "SymmetricMultQType",
                  "__contents": {
                    "min_val": {
                      "__type": "numpy.ndarray",
                      "__contents": [
                        -1.0
                      ],
                      "__dtype": "float64"
                    },
                    "max_val": {
                      "__type": "numpy.ndarray",
                      "__contents": [
                        0.9921875
                      ],
                      "__dtype": "float64"
                    },
                    "scale": {
                      "__type": "numpy.ndarray",
                      "__contents": [
                        0.0078125
                      ],
                      "__dtype": "float64"
                    },
                    "dim": null,
                    "narrow_range": false,
                    "dtype": "int8"
                  }
                }
              ],
              "quant_mode": "symmetric",
              "scale_mul_biases_q": null
            }
          },
          "NodeId_CONV_2D_0_2_fusion###CONV_2D_0_2": {
            "__type": "JsonSerializable",
            "__module_name": "quantization.multiplicative.mult_quantization",
            "__class_name": "MultScalableFilterQuantizationRecord",
            "__contents": {
              "out_qs": [
                {
                  "__type": "JsonSerializable",
                  "__module_name": "quantization.multiplicative.symmetric.symmetric_mult_qtype",
                  "__class_name": "SymmetricMultQType",
                  "__contents": {
                    "min_val": {
                      "__type": "numpy.ndarray",
                      "__contents": [
                        -36.609767162893704
                      ],
                      "__dtype": "float64"
                    },
                    "max_val": {
                      "__type": "numpy.ndarray",
                      "__contents": [
                        36.323753356933594
                      ],
                      "__dtype": "float64"
                    },
                    "scale": {
                      "__type": "numpy.ndarray",
                      "__contents": [
                        0.28601380596010706
                      ],
                      "__dtype": "float64"
                    },
                    "dim": null,
                    "narrow_range": false,
                    "dtype": "int8"
                  }
                }
              ],
              "constants_are_quantized": false,
              "in_qs": [
                {
                  "__type": "JsonSerializable",
                  "__module_name": "quantization.multiplicative.symmetric.symmetric_mult_qtype",
                  "__class_name": "SymmetricMultQType",
                  "__contents": {
                    "min_val": {
                      "__type": "numpy.ndarray",
                      "__contents": [
                        -17.131670613927167
                      ],
                      "__dtype": "float64"
                    },
                    "max_val": {
                      "__type": "numpy.ndarray",
                      "__contents": [
                        16.99782943725586
                      ],
                      "__dtype": "float64"
                    },
                    "scale": {
                      "__type": "numpy.ndarray",
                      "__contents": [
                        0.133841176671306
                      ],
                      "__dtype": "float64"
                    },
                    "dim": null,
                    "narrow_range": false,
                    "dtype": "int8"
                  }
                }
              ],
              "quant_mode": "symmetric",
              "scale_mul_biases_q": null,
              "calc_q": null,
              "acc_q": null,
              "biases_q": {
                "__type": "JsonSerializable",
                "__module_name": "quantization.multiplicative.symmetric.symmetric_mult_biases_qtype",
                "__class_name": "SymmetricMultBiasesQType",
                "__contents": {
                  "min_val": null,
                  "max_val": null,
                  "scale": {
                    "__type": "numpy.ndarray",
                    "__contents": [
                      0.0014114725610755293,
                      0.0009856285138702678,
                      0.0016410152612485118,
                      0.002234032978849121,
                      0.001060623770778777,
                      0.0018078323099701035,
                      0.0014153673533922639,
                      0.0006915464524716949,
                      0.001029662876750749,
                      0.0013578954210270193,
                      0.0013851162125310885,
                      0.001198232120812427,
                      0.0005614052193084918,
                      0.0006752975424661725,
                      0.001219619947890279,
                      0.0008136382695163037
                    ],
                    "__dtype": "float64"
                  },
                  "dim": 0,
                  "narrow_range": false,
                  "dtype": "int32"
                }
              },
              "weights_q": {
                "__type": "JsonSerializable",
                "__module_name": "quantization.multiplicative.symmetric.symmetric_mult_qtype",
                "__class_name": "SymmetricMultQType",
                "__contents": {
                  "min_val": {
                    "__type": "numpy.ndarray",
                    "__contents": [
                      -1.3393263816833496,
                      -0.9352489709854126,
                      -1.5571361780166626,
                      -2.119842290878296,
                      -1.0064109563827515,
                      -1.7154265642166138,
                      -1.343022108078003,
                      -0.6561986207962036,
                      -0.9770325422286987,
                      -1.2884877920150757,
                      -1.314317226409912,
                      -1.1369855403900146,
                      -0.5327094793319702,
                      -0.6407802700996399,
                      -1.1572800874710083,
                      -0.7720498442649841
                    ],
                    "__dtype": "float32"
                  },
                  "max_val": {
                    "__type": "numpy.ndarray",
                    "__contents": [
                      1.3393263816833496,
                      0.9352489709854126,
                      1.5571361780166626,
                      2.119842290878296,
                      1.0064109563827515,
                      1.7154265642166138,
                      1.343022108078003,
                      0.6561986207962036,
                      0.9770325422286987,
                      1.2884877920150757,
                      1.314317226409912,
                      1.1369855403900146,
                      0.5327094793319702,
                      0.6407802700996399,
                      1.1572800874710083,
                      0.7720498442649841
                    ],
                    "__dtype": "float32"
                  },
                  "scale": {
                    "__type": "numpy.ndarray",
                    "__contents": [
                      0.010545876808464527,
                      0.007364165037870407,
                      0.012260914780199528,
                      0.016691671684384346,
                      0.00792449526488781,
                      0.013507295399904251,
                      0.010574976913630962,
                      0.005166918504983187,
                      0.007693169638514519,
                      0.010145572945475578,
                      0.010348954237997532,
                      0.008952641859650612,
                      0.004194562789052725,
                      0.005045514088124037,
                      0.009112441912293434,
                      0.006079132668673992
                    ],
                    "__dtype": "float32"
                  },
                  "dim": 0,
                  "narrow_range": true,
                  "dtype": "int8"
                }
              },
              "mul_biases_q": {
                "__type": "JsonSerializable",
                "__module_name": "quantization.multiplicative.symmetric.mult_mulbias_qtype_new",
                "__class_name": "MultMulBiasScaleQType",
                "__contents": {
                  "qnorms": {
                    "__type": "numpy.ndarray",
                    "__contents": [
                      15,
                      16,
                      15,
                      14,
                      16,
                      15,
                      15,
                      16,
                      16,
                      15,
                      15,
                      15,
                      16,
                      16,
                      15,
                      16
                    ],
                    "__dtype": "int8"
                  },
                  "qbiases": {
                    "__type": "numpy.ndarray",
                    "__contents": [
                      162,
                      226,
                      188,
                      128,
                      243,
                      207,
                      162,
                      158,
                      236,
                      156,
                      159,
                      137,
                      129,
                      155,
                      140,
                      186
                    ],
                    "__dtype": "uint8"
                  },
                  "scale": {
                    "__type": "numpy.ndarray",
                    "__contents": [
                      0.004934980520738919,
                      0.0034460871934543693,
                      0.005737538632933681,
                      0.007810927068187477,
                      0.0037082957139723243,
                      0.0063207868721632905,
                      0.004948598018340688,
                      0.002417877871840044,
                      0.0036000460652391214,
                      0.004747656905822292,
                      0.004842829904246941,
                      0.004189420565871409,
                      0.001962860559908762,
                      0.002361066243635674,
                      0.004264199568255773,
                      0.0028447517307251566
                    ],
                    "__dtype": "float64"
                  },
                  "pre_normalization": 0,
                  "dtype": "uint8"
                }
              },
              "enable_prenorm": false
            }
          },
          "NodeId_CONV_2D_0_2_fusion###CONV_2D_0_2_activation": {
            "__type": "JsonSerializable",
            "__module_name": "quantization.multiplicative.mult_quantization",
            "__class_name": "MultQuantizationRecord",
            "__contents": {
              "out_qs": [
                {
                  "__type": "JsonSerializable",
                  "__module_name": "quantization.multiplicative.symmetric.symmetric_mult_qtype",
                  "__class_name": "SymmetricMultQType",
                  "__contents": {
                    "min_val": {
                      "__type": "numpy.ndarray",
                      "__contents": [
                        -36.609767162893704
                      ],
                      "__dtype": "float64"
                    },
                    "max_val": {
                      "__type": "numpy.ndarray",
                      "__contents": [
                        36.323753356933594
                      ],
                      "__dtype": "float64"
                    },
                    "scale": {
                      "__type": "numpy.ndarray",
                      "__contents": [
                        0.28601380596010706
                      ],
                      "__dtype": "float64"
                    },
                    "dim": null,
                    "narrow_range": false,
                    "dtype": "int8"
                  }
                }
              ],
              "in_qs": [
                {
                  "__type": "JsonSerializable",
                  "__module_name": "quantization.multiplicative.symmetric.symmetric_mult_qtype",
                  "__class_name": "SymmetricMultQType",
                  "__contents": {
                    "min_val": {
                      "__type": "numpy.ndarray",
                      "__contents": [
                        -36.609767162893704
                      ],
                      "__dtype": "float64"
                    },
                    "max_val": {
                      "__type": "numpy.ndarray",
                      "__contents": [
                        36.323753356933594
                      ],
                      "__dtype": "float64"
                    },
                    "scale": {
                      "__type": "numpy.ndarray",
                      "__contents": [
                        0.28601380596010706
                      ],
                      "__dtype": "float64"
                    },
                    "dim": null,
                    "narrow_range": false,
                    "dtype": "int8"
                  }
                }
              ],
              "quant_mode": "symmetric",
              "scale_mul_biases_q": null
            }
          },
          "NodeId_CONV_2D_0_2_fusion###": {
            "__type": "JsonSerializable",
            "__module_name": "quantization.multiplicative.mult_quantization",
            "__class_name": "MultQuantizationRecord",
            "__contents": {
              "out_qs": [
                {
                  "__type": "JsonSerializable",
                  "__module_name": "quantization.multiplicative.symmetric.symmetric_mult_qtype",
                  "__class_name": "SymmetricMultQType",
                  "__contents": {
                    "min_val": {
                      "__type": "numpy.ndarray",
                      "__contents": [
                        -36.609767162893704
                      ],
                      "__dtype": "float64"
                    },
                    "max_val": {
                      "__type": "numpy.ndarray",
                      "__contents": [
                        36.323753356933594
                      ],
                      "__dtype": "float64"
                    },
                    "scale": {
                      "__type": "numpy.ndarray",
                      "__contents": [
                        0.28601380596010706
                      ],
                      "__dtype": "float64"
                    },
                    "dim": null,
                    "narrow_range": false,
                    "dtype": "int8"
                  }
                }
              ],
              "in_qs": [
                {
                  "__type": "JsonSerializable",
                  "__module_name": "quantization.multiplicative.symmetric.symmetric_mult_qtype",
                  "__class_name": "SymmetricMultQType",
                  "__contents": {
                    "min_val": {
                      "__type": "numpy.ndarray",
                      "__contents": [
                        -17.131670613927167
                      ],
                      "__dtype": "float64"
                    },
                    "max_val": {
                      "__type": "numpy.ndarray",
                      "__contents": [
                        16.99782943725586
                      ],
                      "__dtype": "float64"
                    },
                    "scale": {
                      "__type": "numpy.ndarray",
                      "__contents": [
                        0.133841176671306
                      ],
                      "__dtype": "float64"
                    },
                    "dim": null,
                    "narrow_range": false,
                    "dtype": "int8"
                  }
                }
              ],
              "quant_mode": "symmetric",
              "scale_mul_biases_q": null
            }
          },
          "NodeId_CONV_2D_0_3_fusion###CONV_2D_0_3": {
            "__type": "JsonSerializable",
            "__module_name": "quantization.multiplicative.mult_quantization",
            "__class_name": "MultScalableFilterQuantizationRecord",
            "__contents": {
              "out_qs": [
                {
                  "__type": "JsonSerializable",
                  "__module_name": "quantization.multiplicative.symmetric.symmetric_mult_qtype",
                  "__class_name": "SymmetricMultQType",
                  "__contents": {
                    "min_val": {
                      "__type": "numpy.ndarray",
                      "__contents": [
                        -20.309472271776574
                      ],
                      "__dtype": "float64"
                    },
                    "max_val": {
                      "__type": "numpy.ndarray",
                      "__contents": [
                        20.15080451965332
                      ],
                      "__dtype": "float64"
                    },
                    "scale": {
                      "__type": "numpy.ndarray",
                      "__contents": [
                        0.15866775212325449
                      ],
                      "__dtype": "float64"
                    },
                    "dim": null,
                    "narrow_range": false,
                    "dtype": "int8"
                  }
                }
              ],
              "constants_are_quantized": false,
              "in_qs": [
                {
                  "__type": "JsonSerializable",
                  "__module_name": "quantization.multiplicative.symmetric.symmetric_mult_qtype",
                  "__class_name": "SymmetricMultQType",
                  "__contents": {
                    "min_val": {
                      "__type": "numpy.ndarray",
                      "__contents": [
                        -36.609767162893704
                      ],
                      "__dtype": "float64"
                    },
                    "max_val": {
                      "__type": "numpy.ndarray",
                      "__contents": [
                        36.323753356933594
                      ],
                      "__dtype": "float64"
                    },
                    "scale": {
                      "__type": "numpy.ndarray",
                      "__contents": [
                        0.28601380596010706
                      ],
                      "__dtype": "float64"
                    },
                    "dim": null,
                    "narrow_range": false,
                    "dtype": "int8"
                  }
                }
              ],
              "quant_mode": "symmetric",
              "scale_mul_biases_q": null,
              "calc_q": null,
              "acc_q": null,
              "biases_q": {
                "__type": "JsonSerializable",
                "__module_name": "quantization.multiplicative.symmetric.symmetric_mult_biases_qtype",
                "__class_name": "SymmetricMultBiasesQType",
                "__contents": {
                  "min_val": null,
                  "max_val": null,
                  "scale": {
                    "__type": "numpy.ndarray",
                    "__contents": [
                      0.0031563336179804033,
                      0.0017268149428662195,
                      0.0008774625432708303,
                      0.0018776507827026887,
                      0.0013423415359910212,
                      0.0013273200697511923,
                      0.00104414466750207,
                      0.002838078205483191,
                      0.001935078929870649,
                      0.00168132048798295,
                      0.0017189648529468877,
                      0.0013456595877743354,
                      0.002027283557402134,
                      0.0019172387245009659,
                      0.0018595388787965802,
                      0.001953923354340649,
                      0.0010147040667042666,
                      0.0013245372907217474,
                      0.0033052926069466254,
                      0.0012463777461112029,
                      0.0025492181772871574,
                      0.001959772331264986,
                      0.000981722727871726,
                      0.0015588222727533996,
                      0.0014466462045679789,
                      0.00267815857791224,
                      0.001969500337539022,
                      0.0012496136224058039,
                      0.0030706731959811674,
                      0.0025621129365516735,
                      0.002553715054436108,
                      0.0023675522783287396,
                      0.0022202979313074717,
                      0.001293027852073179,
                      0.0012536748495975752,
                      0.0015088950029741304,
                      0.0014438232035002983,
                      0.0022783690983449716,
                      0.001773388999875108,
                      0.0009059149072351656,
                      0.001346171819426831,
                      0.0015425235570212582,
                      0.001545729067008847,
                      0.002949410409979009,
                      0.0015443543256887585,
                      0.0019128490617254573,
                      0.0013936552674194014,
                      0.0021392254853782235,
                      0.0013973266604856253,
                      0.0025669758076114564,
                      0.0009566290372856114,
                      0.0014645391514182622,
                      0.002019759106169841,
                      0.0017087358026071507,
                      0.0011474927974081425,
                      0.0010254884342242119,
                      0.0012462010088769694,
                      0.001188831196983006,
                      0.0011160155230716066,
                      0.0013782767307010647,
                      0.0016520624179911126,
                      0.0010456393424163012,
                      0.0012984405131125512,
                      0.0013016111284841875
                    ],
                    "__dtype": "float64"
                  },
                  "dim": 0,
                  "narrow_range": false,
                  "dtype": "int32"
                }
              },
              "weights_q": {
                "__type": "JsonSerializable",
                "__module_name": "quantization.multiplicative.symmetric.symmetric_mult_qtype",
                "__class_name": "SymmetricMultQType",
                "__contents": {
                  "min_val": {
                    "__type": "numpy.ndarray",
                    "__contents": [
                      -1.40152108669281,
                      -0.7667654156684875,
                      -0.38962364196777344,
                      -0.8337417244911194,
                      -0.596045970916748,
                      -0.589375913143158,
                      -0.46363627910614014,
                      -1.2602046728134155,
                      -0.8592418432235718,
                      -0.7465643286705017,
                      -0.7632797360420227,
                      -0.5975192785263062,
                      -0.9001838564872742,
                      -0.8513201475143433,
                      -0.8256994485855103,
                      -0.8676093816757202,
                      -0.45056360960006714,
                      -0.5881402492523193,
                      -1.4676640033721924,
                      -0.5534347295761108,
                      -1.1319408416748047,
                      -0.8702065348625183,
                      -0.43591877818107605,
                      -0.6921708583831787,
                      -0.6423608660697937,
                      -1.1891947984695435,
                      -0.8745261430740356,
                      -0.5548715591430664,
                      -1.3634848594665527,
                      -1.1376665830612183,
                      -1.1339375972747803,
                      -1.0512748956680298,
                      -0.9858888983726501,
                      -0.5741490125656128,
                      -0.5566748976707458,
                      -0.6700014472007751,
                      -0.6411073207855225,
                      -1.0116745233535767,
                      -0.7874459028244019,
                      -0.4022574722766876,
                      -0.597746729850769,
                      -0.6849336624145508,
                      -0.6863570213317871,
                      -1.3096400499343872,
                      -0.6857466101646423,
                      -0.8493710160255432,
                      -0.6188310384750366,
                      -0.9498899579048157,
                      -0.6204612851142883,
                      -1.1398258209228516,
                      -0.4247763156890869,
                      -0.6503059267997742,
                      -0.8968427181243896,
                      -0.7587376832962036,
                      -0.5095263719558716,
                      -0.455352246761322,
                      -0.5533562302589417,
                      -0.5278820991516113,
                      -0.49554941058158875,
                      -0.612002432346344,
                      -0.7335727214813232,
                      -0.4642999470233917,
                      -0.5765523910522461,
                      -0.5779602527618408
                    ],
                    "__dtype": "float32"
                  },
                  "max_val": {
                    "__type": "numpy.ndarray",
                    "__contents": [
                      1.40152108669281,
                      0.7667654156684875,
                      0.38962364196777344,
                      0.8337417244911194,
                      0.596045970916748,
                      0.589375913143158,
                      0.46363627910614014,
                      1.2602046728134155,
                      0.8592418432235718,
                      0.7465643286705017,
                      0.7632797360420227,
                      0.5975192785263062,
                      0.9001838564872742,
                      0.8513201475143433,
                      0.8256994485855103,
                      0.8676093816757202,
                      0.45056360960006714,
                      0.5881402492523193,
                      1.4676640033721924,
                      0.5534347295761108,
                      1.1319408416748047,
                      0.8702065348625183,
                      0.43591877818107605,
                      0.6921708583831787,
                      0.6423608660697937,
                      1.1891947984695435,
                      0.8745261430740356,
                      0.5548715591430664,
                      1.3634848594665527,
                      1.1376665830612183,
                      1.1339375972747803,
                      1.0512748956680298,
                      0.9858888983726501,
                      0.5741490125656128,
                      0.5566748976707458,
                      0.6700014472007751,
                      0.6411073207855225,
                      1.0116745233535767,
                      0.7874459028244019,
                      0.4022574722766876,
                      0.597746729850769,
                      0.6849336624145508,
                      0.6863570213317871,
                      1.3096400499343872,
                      0.6857466101646423,
                      0.8493710160255432,
                      0.6188310384750366,
                      0.9498899579048157,
                      0.6204612851142883,
                      1.1398258209228516,
                      0.4247763156890869,
                      0.6503059267997742,
                      0.8968427181243896,
                      0.7587376832962036,
                      0.5095263719558716,
                      0.455352246761322,
                      0.5533562302589417,
                      0.5278820991516113,
                      0.49554941058158875,
                      0.612002432346344,
                      0.7335727214813232,
                      0.4642999470233917,
                      0.5765523910522461,
                      0.5779602527618408
                    ],
                    "__dtype": "float32"
                  },
                  "scale": {
                    "__type": "numpy.ndarray",
                    "__contents": [
                      0.011035598814487457,
                      0.006037523038685322,
                      0.0030679027549922466,
                      0.006564895622432232,
                      0.0046932753175497055,
                      0.004640755243599415,
                      0.0036506792530417442,
                      0.009922871366143227,
                      0.006765683647245169,
                      0.005878459196537733,
                      0.006010076496750116,
                      0.004704876337200403,
                      0.007088061887770891,
                      0.006703308317810297,
                      0.0065015703439712524,
                      0.006831570062786341,
                      0.003547745058313012,
                      0.004631025716662407,
                      0.011556409299373627,
                      0.004357753787189722,
                      0.008912920020520687,
                      0.006852020043879747,
                      0.0034324312582612038,
                      0.005450164433568716,
                      0.005057959351688623,
                      0.00936373881995678,
                      0.006886032409965992,
                      0.004369067493826151,
                      0.010736101306974888,
                      0.008958004415035248,
                      0.008928642608225346,
                      0.008277755230665207,
                      0.007762904744595289,
                      0.00452085817232728,
                      0.004383266903460026,
                      0.005275601986795664,
                      0.005048089195042849,
                      0.007965940982103348,
                      0.006200361531227827,
                      0.0031673817429691553,
                      0.004706667270511389,
                      0.005393178667873144,
                      0.005404386203736067,
                      0.010312126018106937,
                      0.005399579647928476,
                      0.006687960587441921,
                      0.004872685298323631,
                      0.007479448337107897,
                      0.004885521717369556,
                      0.008975006639957428,
                      0.0033446953166276217,
                      0.005120519082993269,
                      0.007061753887683153,
                      0.00597431231290102,
                      0.004012018907815218,
                      0.003585450816899538,
                      0.004357135854661465,
                      0.004156551789492369,
                      0.003901963820680976,
                      0.0048189167864620686,
                      0.005776163190603256,
                      0.0036559051368385553,
                      0.004539782647043467,
                      0.004550868179649115
                    ],
                    "__dtype": "float32"
                  },
                  "dim": 0,
                  "narrow_range": true,
                  "dtype": "int8"
                }
              },
              "mul_biases_q": {
                "__type": "JsonSerializable",
                "__module_name": "quantization.multiplicative.symmetric.mult_mulbias_qtype_new",
                "__class_name": "MultMulBiasScaleQType",
                "__contents": {
                  "qnorms": {
                    "__type": "numpy.ndarray",
                    "__contents": [
                      13,
                      14,
                      15,
                      14,
                      14,
                      14,
                      15,
                      13,
                      14,
                      14,
                      14,
                      14,
                      14,
                      14,
                      14,
                      14,
                      15,
                      14,
                      13,
                      14,
                      13,
                      14,
                      15,
                      14,
                      14,
                      13,
                      14,
                      14,
                      13,
                      13,
                      13,
                      14,
                      14,
                      14,
                      14,
                      14,
                      14,
                      14,
                      14,
                      15,
                      14,
                      14,
                      14,
                      13,
                      14,
                      14,
                      14,
                      14,
                      14,
                      13,
                      15,
                      14,
                      14,
                      14,
                      15,
                      15,
                      14,
                      15,
                      15,
                      14,
                      14,
                      15,
                      14,
                      14
                    ],
                    "__dtype": "int8"
                  },
                  "qbiases": {
                    "__type": "numpy.ndarray",
                    "__contents": [
                      163,
                      178,
                      181,
                      194,
                      139,
                      137,
                      216,
                      147,
                      200,
                      174,
                      177,
                      139,
                      209,
                      198,
                      192,
                      202,
                      210,
                      137,
                      171,
                      129,
                      132,
                      202,
                      203,
                      161,
                      149,
                      138,
                      203,
                      129,
                      159,
                      132,
                      132,
                      244,
                      229,
                      134,
                      129,
                      156,
                      149,
                      235,
                      183,
                      187,
                      139,
                      159,
                      160,
                      152,
                      159,
                      198,
                      144,
                      221,
                      144,
                      133,
                      198,
                      151,
                      209,
                      176,
                      237,
                      212,
                      129,
                      246,
                      230,
                      142,
                      171,
                      216,
                      134,
                      134
                    ],
                    "__dtype": "uint8"
                  },
                  "scale": {
                    "__type": "numpy.ndarray",
                    "__contents": [
                      0.019892722848487424,
                      0.010883213001749811,
                      0.005530188280408799,
                      0.011833852547706816,
                      0.008460077854687692,
                      0.008365405395799132,
                      0.006580698683441166,
                      0.01788692514707429,
                      0.012195792175636691,
                      0.010596485205619385,
                      0.010833737983579556,
                      0.008480989802698001,
                      0.012776909802234561,
                      0.012083354675697669,
                      0.011719702673748566,
                      0.012314558744254626,
                      0.006395149947772852,
                      0.00834786699248651,
                      0.02083153358332729,
                      0.007855268190495356,
                      0.016066391205359125,
                      0.012351421792013654,
                      0.006187285788917683,
                      0.009824442912271757,
                      0.009117455722472273,
                      0.016879035229741098,
                      0.012412732336493284,
                      0.007875662229304749,
                      0.019352849932580136,
                      0.016147660140552075,
                      0.016094732674175407,
                      0.014921445893363413,
                      0.013993378626696147,
                      0.008149279452000705,
                      0.007901258023897066,
                      0.009509777398258014,
                      0.009099663820652882,
                      0.014359370873138197,
                      0.011176744966409583,
                      0.005709508675281686,
                      0.008484218131363663,
                      0.009721720616694768,
                      0.009741923272525543,
                      0.018588593904625823,
                      0.00973325899574786,
                      0.012055688923099758,
                      0.008783481512593673,
                      0.013482421328541005,
                      0.008806620386228009,
                      0.016178308277900146,
                      0.00602913335875896,
                      0.009230225624426793,
                      0.012729487114690291,
                      0.010769269619952705,
                      0.00723204798739923,
                      0.006463118185651257,
                      0.007854154307983828,
                      0.0074925823368286685,
                      0.007033663161778936,
                      0.008686558624908277,
                      0.01041208686632036,
                      0.006590118839044493,
                      0.008183392628540622,
                      0.00820337536182579
                    ],
                    "__dtype": "float64"
                  },
                  "pre_normalization": 0,
                  "dtype": "uint8"
                }
              },
              "enable_prenorm": false
            }
          },
          "NodeId_CONV_2D_0_3_fusion###CONV_2D_0_3_activation": {
            "__type": "JsonSerializable",
            "__module_name": "quantization.multiplicative.mult_quantization",
            "__class_name": "MultQuantizationRecord",
            "__contents": {
              "out_qs": [
                {
                  "__type": "JsonSerializable",
                  "__module_name": "quantization.multiplicative.symmetric.symmetric_mult_qtype",
                  "__class_name": "SymmetricMultQType",
                  "__contents": {
                    "min_val": {
                      "__type": "numpy.ndarray",
                      "__contents": [
                        -20.309472271776574
                      ],
                      "__dtype": "float64"
                    },
                    "max_val": {
                      "__type": "numpy.ndarray",
                      "__contents": [
                        20.15080451965332
                      ],
                      "__dtype": "float64"
                    },
                    "scale": {
                      "__type": "numpy.ndarray",
                      "__contents": [
                        0.34370923980953183
                      ],
                      "__dtype": "float64"
                    },
                    "dim": null,
                    "narrow_range": false,
                    "dtype": "int8"
                  }
                }
              ],
              "in_qs": [
                {
                  "__type": "JsonSerializable",
                  "__module_name": "quantization.multiplicative.symmetric.symmetric_mult_qtype",
                  "__class_name": "SymmetricMultQType",
                  "__contents": {
                    "min_val": {
                      "__type": "numpy.ndarray",
                      "__contents": [
                        -20.309472271776574
                      ],
                      "__dtype": "float64"
                    },
                    "max_val": {
                      "__type": "numpy.ndarray",
                      "__contents": [
                        20.15080451965332
                      ],
                      "__dtype": "float64"
                    },
                    "scale": {
                      "__type": "numpy.ndarray",
                      "__contents": [
                        0.15866775212325449
                      ],
                      "__dtype": "float64"
                    },
                    "dim": null,
                    "narrow_range": false,
                    "dtype": "int8"
                  }
                }
              ],
              "quant_mode": "symmetric",
              "scale_mul_biases_q": null
            }
          },
          "NodeId_CONV_2D_0_3_fusion###": {
            "__type": "JsonSerializable",
            "__module_name": "quantization.multiplicative.mult_quantization",
            "__class_name": "MultQuantizationRecord",
            "__contents": {
              "out_qs": [
                {
                  "__type": "JsonSerializable",
                  "__module_name": "quantization.multiplicative.symmetric.symmetric_mult_qtype",
                  "__class_name": "SymmetricMultQType",
                  "__contents": {
                    "min_val": {
                      "__type": "numpy.ndarray",
                      "__contents": [
                        -20.309472271776574
                      ],
                      "__dtype": "float64"
                    },
                    "max_val": {
                      "__type": "numpy.ndarray",
                      "__contents": [
                        20.15080451965332
                      ],
                      "__dtype": "float64"
                    },
                    "scale": {
                      "__type": "numpy.ndarray",
                      "__contents": [
                        0.34370923980953183
                      ],
                      "__dtype": "float64"
                    },
                    "dim": null,
                    "narrow_range": false,
                    "dtype": "int8"
                  }
                }
              ],
              "in_qs": [
                {
                  "__type": "JsonSerializable",
                  "__module_name": "quantization.multiplicative.symmetric.symmetric_mult_qtype",
                  "__class_name": "SymmetricMultQType",
                  "__contents": {
                    "min_val": {
                      "__type": "numpy.ndarray",
                      "__contents": [
                        -36.609767162893704
                      ],
                      "__dtype": "float64"
                    },
                    "max_val": {
                      "__type": "numpy.ndarray",
                      "__contents": [
                        36.323753356933594
                      ],
                      "__dtype": "float64"
                    },
                    "scale": {
                      "__type": "numpy.ndarray",
                      "__contents": [
                        0.28601380596010706
                      ],
                      "__dtype": "float64"
                    },
                    "dim": null,
                    "narrow_range": false,
                    "dtype": "int8"
                  }
                }
              ],
              "quant_mode": "symmetric",
              "scale_mul_biases_q": null
            }
          },
          "NodeId_CONV_2D_0_4_fusion###CONV_2D_0_4": {
            "__type": "JsonSerializable",
            "__module_name": "quantization.multiplicative.mult_quantization",
            "__class_name": "MultScalableFilterQuantizationRecord",
            "__contents": {
              "out_qs": [
                {
                  "__type": "JsonSerializable",
                  "__module_name": "quantization.multiplicative.symmetric.symmetric_mult_qtype",
                  "__class_name": "SymmetricMultQType",
                  "__contents": {
                    "min_val": {
                      "__type": "numpy.ndarray",
                      "__contents": [
                        -43.99478269562008
                      ],
                      "__dtype": "float64"
                    },
                    "max_val": {
                      "__type": "numpy.ndarray",
                      "__contents": [
                        43.65107345581055
                      ],
                      "__dtype": "float64"
                    },
                    "scale": {
                      "__type": "numpy.ndarray",
                      "__contents": [
                        0.34370923980953183
                      ],
                      "__dtype": "float64"
                    },
                    "dim": null,
                    "narrow_range": false,
                    "dtype": "int8"
                  }
                }
              ],
              "constants_are_quantized": false,
              "in_qs": [
                {
                  "__type": "JsonSerializable",
                  "__module_name": "quantization.multiplicative.symmetric.symmetric_mult_qtype",
                  "__class_name": "SymmetricMultQType",
                  "__contents": {
                    "min_val": {
                      "__type": "numpy.ndarray",
                      "__contents": [
                        -36.609767162893704
                      ],
                      "__dtype": "float64"
                    },
                    "max_val": {
                      "__type": "numpy.ndarray",
                      "__contents": [
                        36.323753356933594
                      ],
                      "__dtype": "float64"
                    },
                    "scale": {
                      "__type": "numpy.ndarray",
                      "__contents": [
                        0.28601380596010706
                      ],
                      "__dtype": "float64"
                    },
                    "dim": null,
                    "narrow_range": false,
                    "dtype": "int8"
                  }
                }
              ],
              "quant_mode": "symmetric",
              "scale_mul_biases_q": null,
              "calc_q": null,
              "acc_q": null,
              "biases_q": {
                "__type": "JsonSerializable",
                "__module_name": "quantization.multiplicative.symmetric.symmetric_mult_biases_qtype",
                "__class_name": "SymmetricMultBiasesQType",
                "__contents": {
                  "min_val": null,
                  "max_val": null,
                  "scale": {
                    "__type": "numpy.ndarray",
                    "__contents": [
                      0.0036312858339385577,
                      0.0015884850936531763,
                      0.0008386906959735066,
                      0.0017606848291427603,
                      0.0015612101566061286,
                      0.0013513852348728248,
                      0.0016529490342445353,
                      0.0012969589569756916,
                      0.0016131088390011652,
                      0.0008691375136549827,
                      0.0014894517762395385,
                      0.0020045321346154514,
                      0.0010683081901575995,
                      0.0011459329281637248,
                      0.0026635878115975403,
                      0.0009314657572459271,
                      0.0008916109115912792,
                      0.0019227965577975458,
                      0.0009631936202080923,
                      0.0018539923662723515,
                      0.0012597216070741634,
                      0.001969804266980258,
                      0.001843337788077772,
                      0.0011750600767529613,
                      0.0016956714981284826,
                      0.00023846091528445087,
                      0.002182051967182243,
                      0.0013231492308459518,
                      0.0019121690162710518,
                      0.000714145019175101,
                      0.0013496313142717547,
                      0.0012141704151435815,
                      0.0012508387963453018,
                      0.0012196865613607981,
                      0.0014325827420401628,
                      0.0007889549470253056,
                      0.003110734612434833,
                      0.0026400094396870025,
                      0.0008492607013393458,
                      0.0033011393485349178,
                      0.00198914334260922,
                      0.0015786566654691094,
                      0.0009423456854030709,
                      0.0008784756192106921,
                      0.003365396052399474,
                      0.0021115503257321767,
                      0.002356071949680319,
                      0.0010090763775830029,
                      0.0009781383049742697,
                      0.001507694867919362,
                      0.0012227679424091967,
                      0.0013787550000365072,
                      0.0009722863979676767,
                      0.0007327329948549602,
                      0.0029530525022226774,
                      0.0011630823000488798,
                      0.0022669761394219896,
                      0.0016684442415108665,
                      0.001035380192140666,
                      0.001518650045916251,
                      0.0016864228266743465,
                      0.002135847233723113,
                      0.0012902836968552846,
                      0.0019484225244624954
                    ],
                    "__dtype": "float64"
                  },
                  "dim": 0,
                  "narrow_range": false,
                  "dtype": "int32"
                }
              },
              "weights_q": {
                "__type": "JsonSerializable",
                "__module_name": "quantization.multiplicative.symmetric.symmetric_mult_qtype",
                "__class_name": "SymmetricMultQType",
                "__contents": {
                  "min_val": {
                    "__type": "numpy.ndarray",
                    "__contents": [
                      -1.6124162673950195,
                      -0.705342173576355,
                      -0.37240761518478394,
                      -0.7818048000335693,
                      -0.6932311654090881,
                      -0.6000616550445557,
                      -0.7339664101600647,
                      -0.5758945345878601,
                      -0.7162759900093079,
                      -0.3859270513057709,
                      -0.6613680124282837,
                      -0.8900814652442932,
                      -0.4743657112121582,
                      -0.5088337659835815,
                      -1.182724952697754,
                      -0.41360294818878174,
                      -0.395906001329422,
                      -0.8537880182266235,
                      -0.4276912212371826,
                      -0.8232365846633911,
                      -0.5593598484992981,
                      -0.8746610879898071,
                      -0.818505585193634,
                      -0.5217671990394592,
                      -0.7529366612434387,
                      -0.10588487237691879,
                      -0.9689064025878906,
                      -0.5875239372253418,
                      -0.8490690588951111,
                      -0.3171050250530243,
                      -0.5992828607559204,
                      -0.5391335487365723,
                      -0.5554155707359314,
                      -0.5415829420089722,
                      -0.6361161470413208,
                      -0.35032323002815247,
                      -1.3812735080718994,
                      -1.172255277633667,
                      -0.3771010637283325,
                      -1.4658198356628418,
                      -0.8832482695579529,
                      -0.7009780406951904,
                      -0.4184339940547943,
                      -0.3900734782218933,
                      -1.4943519830703735,
                      -0.9376012086868286,
                      -1.0461772680282593,
                      -0.44806474447250366,
                      -0.4343271553516388,
                      -0.6694685220718384,
                      -0.5429511666297913,
                      -0.6122148036956787,
                      -0.431728720664978,
                      -0.3253587484359741,
                      -1.311257243156433,
                      -0.5164486765861511,
                      -1.0066156387329102,
                      -0.7408468127250671,
                      -0.45974454283714294,
                      -0.6743330359458923,
                      -0.7488299608230591,
                      -0.9483898878097534,
                      -0.5729305148124695,
                      -0.8651668429374695
                    ],
                    "__dtype": "float32"
                  },
                  "max_val": {
                    "__type": "numpy.ndarray",
                    "__contents": [
                      1.6124162673950195,
                      0.705342173576355,
                      0.37240761518478394,
                      0.7818048000335693,
                      0.6932311654090881,
                      0.6000616550445557,
                      0.7339664101600647,
                      0.5758945345878601,
                      0.7162759900093079,
                      0.3859270513057709,
                      0.6613680124282837,
                      0.8900814652442932,
                      0.4743657112121582,
                      0.5088337659835815,
                      1.182724952697754,
                      0.41360294818878174,
                      0.395906001329422,
                      0.8537880182266235,
                      0.4276912212371826,
                      0.8232365846633911,
                      0.5593598484992981,
                      0.8746610879898071,
                      0.818505585193634,
                      0.5217671990394592,
                      0.7529366612434387,
                      0.10588487237691879,
                      0.9689064025878906,
                      0.5875239372253418,
                      0.8490690588951111,
                      0.3171050250530243,
                      0.5992828607559204,
                      0.5391335487365723,
                      0.5554155707359314,
                      0.5415829420089722,
                      0.6361161470413208,
                      0.35032323002815247,
                      1.3812735080718994,
                      1.172255277633667,
                      0.3771010637283325,
                      1.4658198356628418,
                      0.8832482695579529,
                      0.7009780406951904,
                      0.4184339940547943,
                      0.3900734782218933,
                      1.4943519830703735,
                      0.9376012086868286,
                      1.0461772680282593,
                      0.44806474447250366,
                      0.4343271553516388,
                      0.6694685220718384,
                      0.5429511666297913,
                      0.6122148036956787,
                      0.431728720664978,
                      0.3253587484359741,
                      1.311257243156433,
                      0.5164486765861511,
                      1.0066156387329102,
                      0.7408468127250671,
                      0.45974454283714294,
                      0.6743330359458923,
                      0.7488299608230591,
                      0.9483898878097534,
                      0.5729305148124695,
                      0.8651668429374695
                    ],
                    "__dtype": "float32"
                  },
                  "scale": {
                    "__type": "numpy.ndarray",
                    "__contents": [
                      0.012696190737187862,
                      0.005553875584155321,
                      0.0029323433991521597,
                      0.006155943498015404,
                      0.0054585132747888565,
                      0.004724895115941763,
                      0.005779263097792864,
                      0.004534602630883455,
                      0.005639968439936638,
                      0.0030387956649065018,
                      0.005207621958106756,
                      0.007008515298366547,
                      0.003735163016244769,
                      0.00400656508281827,
                      0.009312794543802738,
                      0.0032567160669714212,
                      0.0031173701863735914,
                      0.006722740363329649,
                      0.003367647295817733,
                      0.006482177879661322,
                      0.0044044083915650845,
                      0.006887095049023628,
                      0.006444925907999277,
                      0.004108403343707323,
                      0.005928635131567717,
                      0.0008337391773238778,
                      0.007629184052348137,
                      0.004626172594726086,
                      0.006685582920908928,
                      0.002496890025213361,
                      0.004718762822449207,
                      0.004245146177709103,
                      0.004373351112008095,
                      0.004264432471245527,
